|--- 刮刀高度_上 <= 32.100
|   |--- 刮刀高度_上 <= 30.900
|   |   |--- value: [29.236]
|   |--- 刮刀高度_上 >  30.900
|   |   |--- value: [29.352]
|--- 刮刀高度_上 >  32.100
|   |--- 刮刀高度_下 <= 35.900
|   |   |--- value: [29.972]
|   |--- 刮刀高度_下 >  35.900
|   |   |--- 墨刀高度_下 <= 36.992
|   |   |   |--- 刮刀高度_下 <= 36.600
|   |   |   |   |--- value: [29.586]
|   |   |   |--- 刮刀高度_下 >  36.600
|   |   |   |   |--- value: [29.451]
|   |   |--- 墨刀高度_下 >  36.992
|   |   |   |--- value: [29.307]
